Language model created by QuickLM on Thu Jun 12 10:36:38 EDT 2014
Copyright (c) 1996-2010 Carnegie Mellon University and Alexander I. Rudnicky

The model is in standard ARPA format, designed by Doug Paul while he was at MITRE.

The code that was used to produce this language model is available in Open Source.
Please visit http://www.speech.cs.cmu.edu/tools/ for more information

The (fixed) discount mass is 0.5. The backoffs are computed using the ratio method.
This model based on a corpus of 1 sentences and 5 words

\data\
ngram 1=5
ngram 2=4
ngram 3=3

\1-grams:
-1.0000 </s> -0.3010
-1.0000 <s> -0.2553
-1.0000 RESET -0.2553
-1.0000 RUN -0.2553
-1.0000 STOP -0.2553

\2-grams:
-0.3010 <s> STOP 0.0000
-0.3010 RESET </s> -0.3010
-0.3010 RUN RESET 0.0000
-0.3010 STOP RUN 0.0000

\3-grams:
-0.3010 <s> STOP RUN
-0.3010 RUN RESET </s>
-0.3010 STOP RUN RESET

\end\
